/*!
 * The following copyright notice may not be removed under any circumstances.
 * 
 * Copyright:
 * 2007 Vic Fieger
 * 
 * Trademark:
 * 2007 Vic Fieger
 * 
 * Description:
 * This font was created using Font Creator 5.0 from High-Logic.com
 */
Cufon.registerFont({"w":1463,"face":{"font-family":"Helsinki","font-weight":400,"font-stretch":"normal","units-per-em":"2048","panose-1":"2 0 0 0 0 0 0 0 0 0","ascent":"1638","descent":"-410","x-height":"39","cap-height":"33","bbox":"-23 -1854 1668.02 416","underline-thickness":"150","underline-position":"-142","unicode-range":"U+0020-U+00FF"},"glyphs":{" ":{"w":569},"\u00a0":{"w":569},"!":{"d":"206,-1474r-52,1047v57,37,128,42,214,13r198,-1012v-102,-72,-222,-88,-360,-48xm55,-163v0,-94,69,-163,163,-163v93,0,163,69,163,163v0,93,-69,162,-163,162v-94,0,-163,-69,-163,-162","w":626},"\"":{"d":"359,-1518r-44,564v-85,51,-172,52,-260,3r46,-574v93,-21,179,-19,258,7xm660,-1511r-43,564v-85,51,-172,52,-260,3r46,-574v93,-21,178,-19,257,7","w":720},"#":{"w":1139},"$":{"d":"120,-121v-43,-151,-18,-269,76,-352v171,101,296,163,373,186v144,-1,227,-37,237,-108v8,-56,-37,-118,-132,-164r-257,-125v-161,-85,-250,-206,-250,-361v0,-173,145,-339,281,-381v70,-22,112,-34,129,-35r19,-200v93,-46,180,-41,263,16r-19,209v80,1,186,46,319,135v5,126,-34,236,-118,329v-162,-121,-292,-178,-389,-170v-91,-11,-140,22,-145,98v-3,43,58,106,193,168v148,68,263,132,336,211v73,79,106,176,98,289v-11,153,-84,268,-214,353v-86,56,-148,92,-192,99r-5,202v-134,49,-233,37,-296,-37r16,-206v-76,-9,-184,-61,-323,-156","w":1227},"%":{"w":1821},"&":{"d":"1017,-214v-3,8,-6,16,-10,24v-53,57,-100,99,-143,124v-153,90,-347,128,-536,65v-174,-58,-278,-192,-273,-419v5,-228,148,-420,372,-428r-246,-292v-33,-101,-29,-196,11,-284r834,-41v66,100,59,209,-21,326r-467,-8r848,924v-35,121,-86,203,-154,246xm603,-670v-171,52,-253,124,-240,203v12,80,44,133,95,160v51,27,108,31,174,15v76,-18,156,-58,220,-104","w":1415},"'":{"d":"359,-1518r-44,564v-85,51,-172,52,-260,3r46,-574v93,-21,179,-19,258,7","w":419},"(":{"w":682},")":{"w":682},"*":{"d":"586,-819r-156,-219r-211,199v-91,-23,-145,-89,-164,-200r227,-184r-164,-211v37,-83,112,-129,227,-140r144,196r215,-171v99,27,145,87,140,181r-218,194r168,188v-49,89,-118,145,-208,167","w":912},"+":{"w":1196},",":{"d":"55,-115v0,-111,74,-201,182,-201v108,0,173,91,182,201v5,56,-34,189,-139,402r-136,-36r14,-166v-59,-58,-103,-106,-103,-200","w":497},"-":{"d":"78,-631v-15,-108,-4,-218,35,-331r685,0v9,113,-3,223,-35,331r-685,0","w":871},"\u00ad":{"d":"78,-631v-15,-108,-4,-218,35,-331r685,0v9,113,-3,223,-35,331r-685,0","w":871},".":{"d":"55,-153v0,-94,69,-163,163,-163v93,0,163,69,163,163v0,93,-69,162,-163,162v-94,0,-163,-69,-163,-162","w":441},"\/":{"d":"15,296v39,78,99,95,181,52r418,-2102v-54,-59,-111,-76,-171,-51","w":602},"0":{"d":"1094,-1251v95,143,134,325,116,545v-18,220,-82,400,-193,543v-111,143,-247,214,-409,214v-162,0,-295,-70,-398,-209v-103,-139,-147,-317,-130,-535v17,-218,87,-401,208,-550v121,-149,262,-223,423,-223v161,0,288,72,383,215xm512,-984v-88,128,-126,427,-38,582v88,155,235,137,319,-8v78,-134,103,-407,29,-562v-75,-156,-215,-149,-310,-12","w":1296},"1":{"d":"489,18r82,-1423v-7,-37,-24,-58,-52,-63r-358,18v-71,103,-79,221,-26,352r87,-2r-70,1138v147,26,259,19,337,-20","w":631},"2":{"d":"629,-275r516,-27v67,89,67,200,2,333r-1022,20v-47,-127,-30,-245,50,-354v396,-294,608,-489,635,-585v27,-96,14,-165,-38,-208v-52,-43,-122,-47,-210,-10v-88,37,-178,95,-271,172v-111,-72,-147,-181,-108,-327v165,-131,317,-196,458,-196v165,0,294,41,388,120v69,58,111,159,125,304v14,145,-32,284,-137,417v-105,133,-235,247,-388,341","w":1305},"3":{"d":"245,-1384r940,-60v36,84,30,180,-19,287r-310,325v245,-19,394,151,374,389v-21,238,-160,378,-355,458v-181,74,-421,80,-599,-1v-46,-21,-96,-56,-149,-108v-48,-121,-29,-236,56,-347v92,105,216,178,379,199v73,9,139,-4,200,-37v61,-33,102,-91,125,-174v23,-83,-60,-142,-247,-177r-110,28v-75,-85,-82,-181,-21,-288r255,-231r-530,65v-79,-109,-75,-219,11,-328","w":1304},"4":{"d":"752,-1405r-631,887v-44,106,-35,200,28,283r588,-10r-9,283v99,37,204,36,315,-3r7,-283r105,-3v41,-101,44,-203,8,-304r-89,-1r29,-865v-159,-47,-276,-41,-351,16xm758,-534r-306,5r340,-500","w":1277},"5":{"d":"120,-121v-43,-151,-18,-269,76,-352v171,101,296,163,373,186v144,-1,222,-37,237,-108v33,-161,-7,-253,-123,-276v-185,3,-311,9,-379,20v-68,11,-122,-20,-161,-93r57,-667v5,-23,31,-44,80,-45r831,-15v57,115,52,223,-15,322r-591,11r-27,176v316,-31,452,-24,604,139v74,79,89,230,59,454v-20,148,-91,261,-221,346v-86,56,-206,88,-364,73v-152,-14,-297,-76,-436,-171","w":1256},"6":{"d":"336,-1042v-107,170,-189,330,-218,487v-51,273,35,469,231,584v429,119,700,-25,803,-434v99,-394,-85,-561,-543,-498v128,-194,265,-321,411,-382v-9,-109,-60,-186,-153,-232v-247,147,-424,305,-531,475xm654,-624v196,-7,237,20,192,220v-21,92,-72,148,-148,174v-154,52,-248,-29,-261,-152v-7,-64,1,-119,26,-165v25,-46,88,-73,191,-77","w":1356},"7":{"d":"598,24r488,-1278v29,-134,-1,-212,-89,-209r-891,34v-34,102,-42,212,-24,330r604,-15r-431,1157v139,26,253,20,343,-19","w":1189},"8":{"d":"1141,-586v25,53,36,113,33,180v-7,157,-74,276,-198,361v-165,113,-475,154,-698,67v-133,-51,-226,-179,-218,-362v6,-148,67,-255,179,-320r70,-41v-128,-105,-189,-223,-183,-354v8,-169,83,-288,220,-363v154,-84,473,-103,645,-29v139,60,205,170,197,334v-7,139,-60,239,-159,299r-70,41v77,31,137,93,182,187xm666,-1166v-138,6,-210,60,-215,161v-5,100,59,147,192,140v134,-7,203,-60,208,-158v5,-101,-57,-148,-185,-143xm626,-584v-151,7,-229,69,-234,186v-5,112,68,164,221,156v147,-8,224,-67,229,-177v5,-117,-67,-172,-216,-165","w":1260},"9":{"d":"893,-388v113,-170,200,-332,234,-491v59,-277,-22,-480,-217,-603v-430,-133,-704,7,-823,420v-21,381,157,556,534,524v-135,194,-273,323,-415,388v-1,103,64,191,194,262v215,-163,380,-330,493,-500xm428,-882v-27,-52,-32,-117,-17,-194v15,-77,62,-127,139,-151v156,-49,250,36,260,163v6,65,-6,121,-32,167v-26,46,-84,73,-174,81v-90,8,-149,-14,-176,-66","w":1262},":":{"d":"55,-948v0,-94,69,-163,163,-163v93,0,163,69,163,163v0,93,-69,162,-163,162v-94,0,-163,-69,-163,-162xm57,-157v0,-94,69,-163,163,-163v93,0,163,69,163,163v0,93,-69,162,-163,162v-94,0,-163,-69,-163,-162","w":443},";":{"d":"55,-115v0,-112,75,-201,185,-201v110,0,184,89,186,201v13,55,-35,189,-142,402r-139,-36r14,-166v-59,-58,-104,-106,-104,-200xm70,-948v0,-94,69,-163,163,-163v93,0,163,69,163,163v0,93,-69,162,-163,162v-94,0,-163,-69,-163,-162","w":505},"\u037e":{"d":"55,-115v0,-112,75,-201,185,-201v110,0,184,89,186,201v13,55,-35,189,-142,402r-139,-36r14,-166v-59,-58,-104,-106,-104,-200xm70,-948v0,-94,69,-163,163,-163v93,0,163,69,163,163v0,93,-69,162,-163,162v-94,0,-163,-69,-163,-162","w":505},"<":{"w":1196},"=":{"w":1196},">":{"w":1196},"?":{"d":"55,-1177v19,126,97,176,236,150v43,-151,121,-233,231,-224v82,7,123,55,126,125v3,70,-35,135,-122,170v-211,84,-256,212,-228,510v73,39,155,42,246,11v5,-106,23,-179,54,-220v43,-34,106,-77,189,-128v113,-69,172,-201,176,-395v4,-194,-130,-316,-402,-363v-247,13,-416,135,-506,364xm243,-167v0,-94,69,-163,163,-163v93,0,163,69,163,163v0,93,-69,162,-163,162v-94,0,-163,-69,-163,-162","w":1029},"@":{"w":2079},"A":{"d":"579,-1461r-524,1461v73,62,183,83,332,63r92,-270r371,-46r72,268v146,28,265,12,356,-48r-400,-1440v-94,-58,-194,-54,-299,12xm794,-533r-244,29r157,-492","w":1338},"B":{"d":"182,-1374r-127,1398r10,36v9,42,66,30,107,23v265,11,528,-11,793,-43v76,-9,143,-41,200,-116v57,-75,83,-180,79,-315v-4,-135,-79,-239,-224,-312v120,-55,194,-141,222,-256v28,-115,24,-221,-9,-318v-33,-97,-116,-157,-248,-179v-132,-22,-364,-17,-696,14xm925,-1116v30,59,30,128,1,207v-29,79,-183,114,-462,106r36,-360v253,-27,395,-12,425,47xm898,-498v36,58,41,121,14,190v-27,69,-200,102,-518,99r37,-345v275,-21,431,-2,467,56","w":1343},"C":{"d":"1180,-1319v23,120,-8,216,-94,288v-58,-37,-148,-72,-273,-89v-108,-15,-197,20,-266,94v-69,74,-103,171,-126,287v-15,76,-11,170,42,285v49,106,127,161,231,167v104,6,228,-14,373,-61v52,103,57,203,15,302v-171,79,-311,122,-417,112v-197,-19,-340,-96,-430,-214v-120,-158,-161,-381,-122,-669v31,-228,96,-408,217,-517v142,-128,329,-167,541,-148v147,13,250,64,309,163","w":1275},"D":{"d":"102,-1324r16,-120r100,-23r384,11v381,69,576,302,568,701v-4,203,-60,374,-146,516v-112,186,-387,281,-834,281r-114,-32r-21,-138xm372,-274v344,23,462,-113,486,-420v12,-150,-11,-265,-60,-342v-49,-77,-177,-116,-386,-119","w":1234},"E":{"d":"192,-1437v-24,11,-40,30,-47,56r-90,1371v7,37,24,58,53,63r935,-37v71,-103,78,-214,23,-332r-671,20r27,-310r547,-23v58,-87,62,-179,12,-276r-537,11r18,-256r654,-21v44,-91,50,-189,17,-294","w":1242},"F":{"d":"190,-1437v-24,11,-40,30,-47,56r-88,1414v91,57,200,59,327,4r36,-565r547,-23v58,-86,62,-178,11,-275r-536,10r20,-334r654,-21v44,-91,50,-189,17,-294","w":1240},"G":{"d":"1148,-788v39,22,67,53,84,92r-40,474v-66,118,-149,199,-250,244v-90,40,-183,60,-279,60v-167,0,-301,-53,-400,-161v-139,-151,-198,-368,-179,-649v19,-272,102,-482,267,-606v124,-94,283,-129,458,-129v226,0,302,39,431,163v6,117,-23,213,-86,288r-101,-45v-79,-47,-167,-71,-263,-71v-127,0,-220,32,-278,88v-58,56,-96,168,-110,337v-12,143,7,250,38,328v41,103,117,158,247,146v138,-12,219,-64,224,-147r6,-103r-207,-2v-60,-119,-49,-223,33,-312","w":1309},"H":{"d":"141,-1398r-86,1405v73,53,182,61,325,24r36,-610r469,-20r-29,611v92,57,200,54,323,-8r68,-1423v-95,-51,-193,-52,-296,-2r-38,521r-475,24r29,-559v-120,-46,-229,-34,-326,37","w":1307},"I":{"d":"55,18v94,49,209,54,345,15r118,-1471v-117,-34,-227,-39,-328,-15","w":578},"J":{"d":"631,-1430v79,1050,-79,1384,-472,1003v-69,47,-92,143,-67,287v81,169,212,234,397,210v135,-18,245,-78,327,-194v82,-116,127,-438,135,-967r-6,-354v-110,-35,-215,-30,-314,15","w":1011},"K":{"d":"129,-1454r-74,1456v124,57,234,59,329,4r23,-565r437,580v187,28,261,-43,289,-189r-500,-606r521,-521v-43,-121,-128,-178,-254,-169r-458,463r29,-453v-146,-48,-260,-48,-342,0","w":1214},"L":{"d":"137,-1433r-82,1423v7,37,24,58,53,63r871,-32v71,-104,78,-215,23,-333r-600,16r72,-1157v-147,-26,-259,-19,-337,20","w":1145},"M":{"d":"156,-1444r-101,1484r323,3r53,-719r164,674v39,44,84,53,135,28r306,-696r-41,710r325,-3r91,-1483v-89,-23,-182,-23,-278,2r-411,842r-233,-840v-139,-38,-250,-39,-333,-2","w":1471},"N":{"d":"141,-1398r-86,1405v73,53,182,61,325,24r56,-818r447,816v117,47,210,39,278,-22r86,-1426v-95,-51,-193,-52,-296,-2r-48,788r-476,-807v-143,-37,-239,-23,-286,42","w":1307},"O":{"d":"1241,-1251v108,143,152,325,132,545v-20,220,-93,400,-220,543v-127,143,-282,214,-467,214v-185,0,-336,-70,-454,-209v-118,-139,-167,-317,-148,-535v19,-218,98,-401,237,-550v139,-149,300,-223,483,-223v183,0,329,72,437,215xm538,-984v-69,73,-112,167,-127,286v-15,119,10,218,74,296v64,78,141,114,232,110v91,-4,165,-45,228,-118v113,-130,153,-402,43,-562v-108,-157,-321,-149,-450,-12"},"P":{"d":"182,-1374r-127,1368v81,69,190,80,327,32r45,-430r117,-13r324,-75v214,-53,338,-170,372,-354v34,-184,32,-326,-4,-426v-36,-100,-119,-162,-251,-184v-132,-22,-364,-17,-696,14xm925,-1110v30,64,27,143,-7,236v-34,93,-189,149,-464,168r46,-456v253,-30,395,-12,425,52","w":1350},"Q":{"d":"1241,-1251v108,143,152,325,132,545v-20,220,-113,429,-279,629r76,195r-293,115r-84,-213v-257,21,-443,-39,-561,-178v-118,-139,-167,-317,-148,-535v19,-218,98,-401,237,-550v139,-149,300,-223,483,-223v183,0,329,72,437,215xm538,-984v-69,73,-112,167,-127,286v-15,119,10,218,74,296v64,78,135,116,213,113r-62,-184r242,-104r72,170v108,-133,147,-406,38,-565v-108,-157,-321,-149,-450,-12"},"R":{"d":"182,-1374r-127,1368v81,69,190,80,327,32r47,-473r117,-12r351,509v153,47,263,4,328,-127r-354,-457v214,-53,337,-165,370,-334v33,-169,31,-304,-5,-404v-36,-100,-119,-162,-251,-184v-132,-22,-364,-17,-696,14xm925,-1110v30,64,28,135,-5,214v-33,79,-188,128,-463,147r43,-413v253,-30,395,-12,425,52","w":1350},"S":{"d":"120,-121v-43,-151,-18,-269,76,-352v171,101,296,163,373,186v144,-1,227,-37,237,-108v8,-56,-37,-118,-132,-164r-257,-125v-161,-85,-250,-206,-250,-361v0,-173,145,-339,281,-381v70,-22,152,-31,248,-25v176,11,330,61,463,150v5,126,-34,236,-118,329v-162,-121,-292,-178,-389,-170v-91,-11,-140,22,-145,98v-3,43,58,106,193,168v148,68,263,132,336,211v73,79,106,176,98,289v-11,153,-84,268,-214,353v-86,56,-206,88,-364,73v-152,-14,-297,-76,-436,-171","w":1227},"T":{"d":"157,-1434v-68,87,-65,193,9,318r363,-8r-65,1148v121,45,232,45,333,2r54,-1163r369,-5v51,-107,54,-214,8,-321","w":1357},"U":{"d":"135,-1439v120,-23,234,-22,343,5v-41,529,-60,836,-56,922v7,164,53,264,220,264v79,0,134,-24,164,-73v30,-49,48,-112,56,-191v8,-79,22,-388,41,-925v97,-25,208,-25,332,-2v-32,713,-67,1113,-107,1201v-80,176,-237,296,-497,296v-131,0,-245,-32,-343,-98v-98,-66,-162,-161,-190,-286v-28,-125,-16,-496,37,-1113","w":1295},"V":{"d":"1329,-1453r-570,1469v-119,54,-233,55,-341,3r-363,-1472v124,-21,249,-21,375,0r191,1052r326,-1052v123,-20,251,-20,382,0","w":1389},"W":{"d":"1244,26r249,-1470v-103,-46,-206,-52,-307,-17r-159,876r-93,-861v-79,-30,-178,-33,-297,-8r-205,843r-41,-856v-125,-22,-237,-19,-336,10r133,1513v103,22,209,20,319,-5r235,-874r137,857v149,31,270,29,365,-8","w":1553},"X":{"d":"178,-1318r298,546r-421,627v42,113,136,185,283,215r306,-539r313,553v118,-13,217,-72,296,-178r-399,-692r355,-515v-78,-105,-171,-156,-280,-153r-245,394r-211,-410v-133,0,-232,51,-295,152","w":1313},"Y":{"d":"55,-1359r367,685r-27,711v93,42,200,43,321,2r29,-705r473,-700v-54,-71,-152,-103,-293,-96r-315,510r-239,-516v-143,-9,-249,27,-316,109","w":1278},"Z":{"d":"178,-1125r604,-6r-668,896v-39,136,-26,234,40,295r1021,-4v41,-121,40,-235,-3,-341r-617,11r657,-878v52,-115,46,-220,-19,-313r-962,-1v-60,96,-78,210,-53,341","w":1350},"[":{"w":569},"\\":{"d":"187,-1805v-60,-25,-117,-8,-172,51r419,2102v82,43,142,26,180,-52","w":602},"]":{"w":569},"^":{"w":961},"_":{"w":1139},"`":{"w":682},"a":{"d":"579,-1461r-524,1461v73,62,183,83,332,63r92,-270r371,-46r72,268v146,28,265,12,356,-48r-400,-1440v-94,-58,-194,-54,-299,12xm794,-533r-244,29r157,-492","w":1338},"b":{"d":"182,-1374r-127,1398r10,36v9,42,66,30,107,23v265,11,528,-11,793,-43v76,-9,143,-41,200,-116v57,-75,83,-180,79,-315v-4,-135,-79,-239,-224,-312v120,-55,194,-141,222,-256v28,-115,24,-221,-9,-318v-33,-97,-116,-157,-248,-179v-132,-22,-364,-17,-696,14xm925,-1116v30,59,30,128,1,207v-29,79,-183,114,-462,106r36,-360v253,-27,395,-12,425,47xm898,-498v36,58,41,121,14,190v-27,69,-200,102,-518,99r37,-345v275,-21,431,-2,467,56","w":1343},"c":{"d":"1180,-1319v23,120,-8,216,-94,288v-58,-37,-148,-72,-273,-89v-108,-15,-197,20,-266,94v-69,74,-103,171,-126,287v-15,76,-11,170,42,285v49,106,127,161,231,167v104,6,228,-14,373,-61v52,103,57,203,15,302v-171,79,-311,122,-417,112v-197,-19,-340,-96,-430,-214v-120,-158,-161,-381,-122,-669v31,-228,96,-408,217,-517v142,-128,329,-167,541,-148v147,13,250,64,309,163","w":1275},"d":{"d":"102,-1324r16,-120r100,-23r384,11v381,69,576,302,568,701v-4,203,-60,374,-146,516v-112,186,-387,281,-834,281r-114,-32r-21,-138xm372,-274v344,23,462,-113,486,-420v12,-150,-11,-265,-60,-342v-49,-77,-177,-116,-386,-119","w":1234},"e":{"d":"192,-1437v-24,11,-40,30,-47,56r-90,1371v7,37,24,58,53,63r935,-37v71,-103,78,-214,23,-332r-671,20r27,-310r547,-23v58,-87,62,-179,12,-276r-537,11r18,-256r654,-21v44,-91,50,-189,17,-294","w":1242},"f":{"d":"190,-1437v-24,11,-40,30,-47,56r-88,1414v91,57,200,59,327,4r36,-565r547,-23v58,-86,62,-178,11,-275r-536,10r20,-334r654,-21v44,-91,50,-189,17,-294","w":1240},"g":{"d":"1148,-788v39,22,67,53,84,92r-40,474v-66,118,-149,199,-250,244v-90,40,-183,60,-279,60v-167,0,-301,-53,-400,-161v-139,-151,-198,-368,-179,-649v19,-272,102,-482,267,-606v124,-94,283,-129,458,-129v226,0,302,39,431,163v6,117,-23,213,-86,288r-101,-45v-79,-47,-167,-71,-263,-71v-127,0,-220,32,-278,88v-58,56,-96,168,-110,337v-12,143,7,250,38,328v41,103,117,158,247,146v138,-12,219,-64,224,-147r6,-103r-207,-2v-60,-119,-49,-223,33,-312","w":1309},"h":{"d":"141,-1398r-86,1405v73,53,182,61,325,24r36,-610r469,-20r-29,611v92,57,200,54,323,-8r68,-1423v-95,-51,-193,-52,-296,-2r-38,521r-475,24r29,-559v-120,-46,-229,-34,-326,37","w":1307},"i":{"d":"55,18v94,49,209,54,345,15r118,-1471v-117,-34,-227,-39,-328,-15","w":578},"j":{"d":"631,-1430v79,1050,-79,1384,-472,1003v-69,47,-92,143,-67,287v81,169,212,234,397,210v135,-18,245,-78,327,-194v82,-116,127,-438,135,-967r-6,-354v-110,-35,-215,-30,-314,15","w":1011},"k":{"d":"129,-1454r-74,1456v124,57,234,59,329,4r23,-565r437,580v187,28,261,-43,289,-189r-500,-606r521,-521v-43,-121,-128,-178,-254,-169r-458,463r29,-453v-146,-48,-260,-48,-342,0","w":1214},"l":{"d":"137,-1433r-82,1423v7,37,24,58,53,63r871,-32v71,-104,78,-215,23,-333r-600,16r72,-1157v-147,-26,-259,-19,-337,20","w":1145},"m":{"d":"156,-1444r-101,1484r323,3r53,-719r164,674v39,44,84,53,135,28r306,-696r-41,710r325,-3r91,-1483v-89,-23,-182,-23,-278,2r-411,842r-233,-840v-139,-38,-250,-39,-333,-2","w":1471},"n":{"d":"141,-1398r-86,1405v73,53,182,61,325,24r56,-818r447,816v117,47,210,39,278,-22r86,-1426v-95,-51,-193,-52,-296,-2r-48,788r-476,-807v-143,-37,-239,-23,-286,42","w":1307},"o":{"d":"1241,-1251v108,143,152,325,132,545v-20,220,-93,400,-220,543v-127,143,-282,214,-467,214v-185,0,-336,-70,-454,-209v-118,-139,-167,-317,-148,-535v19,-218,98,-401,237,-550v139,-149,300,-223,483,-223v183,0,329,72,437,215xm538,-984v-69,73,-112,167,-127,286v-15,119,10,218,74,296v64,78,141,114,232,110v91,-4,165,-45,228,-118v113,-130,153,-402,43,-562v-108,-157,-321,-149,-450,-12"},"p":{"d":"182,-1374r-127,1368v81,69,190,80,327,32r45,-430r117,-13r324,-75v214,-53,338,-170,372,-354v34,-184,32,-326,-4,-426v-36,-100,-119,-162,-251,-184v-132,-22,-364,-17,-696,14xm925,-1110v30,64,27,143,-7,236v-34,93,-189,149,-464,168r46,-456v253,-30,395,-12,425,52","w":1350},"q":{"d":"1241,-1251v108,143,152,325,132,545v-20,220,-113,429,-279,629r76,195r-293,115r-84,-213v-257,21,-443,-39,-561,-178v-118,-139,-167,-317,-148,-535v19,-218,98,-401,237,-550v139,-149,300,-223,483,-223v183,0,329,72,437,215xm538,-984v-69,73,-112,167,-127,286v-15,119,10,218,74,296v64,78,135,116,213,113r-62,-184r242,-104r72,170v108,-133,147,-406,38,-565v-108,-157,-321,-149,-450,-12"},"r":{"d":"182,-1374r-127,1368v81,69,190,80,327,32r47,-473r117,-12r351,509v153,47,263,4,328,-127r-354,-457v214,-53,337,-165,370,-334v33,-169,31,-304,-5,-404v-36,-100,-119,-162,-251,-184v-132,-22,-364,-17,-696,14xm925,-1110v30,64,28,135,-5,214v-33,79,-188,128,-463,147r43,-413v253,-30,395,-12,425,52","w":1350},"s":{"d":"120,-121v-43,-151,-18,-269,76,-352v171,101,296,163,373,186v144,-1,227,-37,237,-108v8,-56,-37,-118,-132,-164r-257,-125v-161,-85,-250,-206,-250,-361v0,-173,145,-339,281,-381v70,-22,152,-31,248,-25v176,11,330,61,463,150v5,126,-34,236,-118,329v-162,-121,-292,-178,-389,-170v-91,-11,-140,22,-145,98v-3,43,58,106,193,168v148,68,263,132,336,211v73,79,106,176,98,289v-11,153,-84,268,-214,353v-86,56,-206,88,-364,73v-152,-14,-297,-76,-436,-171","w":1227},"t":{"d":"157,-1434v-68,87,-65,193,9,318r363,-8r-65,1148v121,45,232,45,333,2r54,-1163r369,-5v51,-107,54,-214,8,-321","w":1357},"u":{"d":"135,-1439v120,-23,234,-22,343,5v-41,529,-60,836,-56,922v7,164,53,264,220,264v79,0,134,-24,164,-73v30,-49,48,-112,56,-191v8,-79,22,-388,41,-925v97,-25,208,-25,332,-2v-32,713,-67,1113,-107,1201v-80,176,-237,296,-497,296v-131,0,-245,-32,-343,-98v-98,-66,-162,-161,-190,-286v-28,-125,-16,-496,37,-1113","w":1295},"v":{"d":"1329,-1453r-570,1469v-119,54,-233,55,-341,3r-363,-1472v124,-21,249,-21,375,0r191,1052r326,-1052v123,-20,251,-20,382,0","w":1389},"w":{"d":"1244,26r249,-1470v-103,-46,-206,-52,-307,-17r-159,876r-93,-861v-79,-30,-178,-33,-297,-8r-205,843r-41,-856v-125,-22,-237,-19,-336,10r133,1513v103,22,209,20,319,-5r235,-874r137,857v149,31,270,29,365,-8","w":1553},"x":{"d":"178,-1318r298,546r-421,627v42,113,136,185,283,215r306,-539r313,553v118,-13,217,-72,296,-178r-399,-692r355,-515v-78,-105,-171,-156,-280,-153r-245,394r-211,-410v-133,0,-232,51,-295,152","w":1313},"y":{"d":"55,-1359r367,685r-27,711v93,42,200,43,321,2r29,-705r473,-700v-54,-71,-152,-103,-293,-96r-315,510r-239,-516v-143,-9,-249,27,-316,109","w":1278},"z":{"d":"178,-1125r604,-6r-668,896v-39,136,-26,234,40,295r1021,-4v41,-121,40,-235,-3,-341r-617,11r657,-878v52,-115,46,-220,-19,-313r-962,-1v-60,96,-78,210,-53,341","w":1350},"{":{"w":684},"|":{"d":"55,-907v0,-143,106,-249,249,-249v142,0,249,105,249,249v0,142,-106,247,-249,247v-145,0,-249,-105,-249,-247","w":611},"}":{"w":684},"~":{"w":1196},"\u00c4":{"d":"587,-1461r-524,1461v73,62,183,83,332,63r92,-270r371,-46r72,268v146,28,265,12,356,-48r-400,-1440v-94,-58,-194,-54,-299,12xm802,-533r-244,29r157,-492xm471,-1699v0,-72,49,-129,120,-129v71,0,120,57,120,129v0,71,-49,128,-120,128v-72,0,-120,-57,-120,-128xm794,-1695v0,-72,49,-129,120,-129v71,0,120,57,120,129v0,72,-49,128,-120,128v-71,0,-120,-57,-120,-128","w":1338},"\u00c5":{"d":"579,-1461r-524,1461v73,62,183,83,332,63r92,-270r371,-46r72,268v146,28,265,12,356,-48r-400,-1440v-94,-58,-194,-54,-299,12xm794,-533r-244,29r157,-492xm579,-1688v0,-93,70,-160,164,-160v92,0,163,67,163,160v0,93,-69,160,-163,160v-95,0,-164,-66,-164,-160xm742,-1790v-57,0,-96,45,-96,102v0,56,39,101,96,101v57,0,96,-44,96,-101v0,-57,-40,-102,-96,-102","w":1338},"\u00c7":{"d":"562,47v-145,-34,-254,-99,-327,-195v-120,-158,-161,-381,-122,-669v31,-228,96,-408,217,-517v142,-128,329,-167,541,-148v147,13,250,64,309,163v23,120,-8,216,-94,288v-58,-37,-148,-72,-273,-89v-108,-15,-197,20,-266,94v-69,74,-103,171,-126,287v-15,76,-11,170,42,285v49,106,127,161,231,167v104,6,228,-14,373,-61v52,103,57,203,15,302v-158,72,-288,109,-391,112v1,1,2,3,3,4v19,13,46,30,82,50v49,27,74,78,76,154v2,76,-56,123,-174,142v-107,-5,-179,-53,-218,-142v8,-49,42,-69,102,-59v19,59,52,91,100,88v35,-3,53,-22,54,-49v1,-27,-15,-52,-53,-66v-70,-26,-100,-56,-101,-141","w":1275},"\u00c9":{"d":"207,-1437v-24,11,-40,30,-47,56r-90,1371v7,37,24,58,53,63r935,-37v71,-103,78,-214,23,-332r-671,20r27,-310r547,-23v58,-87,62,-179,12,-276r-537,11r18,-256r654,-21v44,-91,50,-189,17,-294xm917,-1693r-329,211v-55,-28,-84,-78,-85,-149r335,-214v41,45,68,95,79,152","w":1242},"\u00d1":{"d":"141,-1398r-86,1405v73,53,182,61,325,24r56,-818r447,816v117,47,210,39,278,-22r86,-1426v-95,-51,-193,-52,-296,-2r-48,788r-476,-807v-143,-37,-239,-23,-286,42xm914,-1582v-67,46,-127,51,-178,19v-37,-13,-93,-58,-136,-22v-21,17,-38,33,-53,44r-126,-35v26,-58,67,-109,123,-152v94,-70,170,-67,253,6v26,22,49,25,68,10v30,-7,53,-21,70,-43r76,80v-23,31,-54,63,-97,93","w":1307},"\u00d6":{"d":"1241,-1251v108,143,152,325,132,545v-20,220,-93,400,-220,543v-127,143,-282,214,-467,214v-185,0,-336,-70,-454,-209v-118,-139,-167,-317,-148,-535v19,-218,98,-401,237,-550v139,-149,300,-223,483,-223v183,0,329,72,437,215xm538,-984v-69,73,-112,167,-127,286v-15,119,10,218,74,296v64,78,141,114,232,110v91,-4,165,-45,228,-118v113,-130,153,-402,43,-562v-108,-157,-321,-149,-450,-12xm540,-1711v0,-72,49,-129,120,-129v71,0,120,57,120,129v0,71,-49,128,-120,128v-72,0,-120,-57,-120,-128xm863,-1707v0,-72,49,-129,120,-129v71,0,120,57,120,129v0,72,-49,128,-120,128v-71,0,-120,-57,-120,-128"},"\u00dc":{"d":"135,-1439v120,-23,234,-22,343,5v-41,529,-60,836,-56,922v7,164,53,264,220,264v79,0,134,-24,164,-73v30,-49,48,-112,56,-191v8,-79,22,-388,41,-925v97,-25,208,-25,332,-2v-32,713,-67,1113,-107,1201v-80,176,-237,296,-497,296v-131,0,-245,-32,-343,-98v-98,-66,-162,-161,-190,-286v-28,-125,-16,-496,37,-1113xm427,-1687v0,-72,49,-129,120,-129v71,0,120,57,120,129v0,71,-49,128,-120,128v-72,0,-120,-57,-120,-128xm750,-1683v0,-72,49,-129,120,-129v71,0,120,57,120,129v0,72,-49,128,-120,128v-71,0,-120,-57,-120,-128","w":1295},"\u00e1":{"d":"579,-1461r-524,1461v73,62,183,83,332,63r92,-270r371,-46r72,268v146,28,265,12,356,-48r-400,-1440v-94,-58,-194,-54,-299,12xm794,-533r-244,29r157,-492xm1079,-1685r-366,136v-48,-39,-65,-94,-51,-164r373,-138v31,53,46,108,44,166","w":1338},"\u00e0":{"d":"579,-1461r-524,1461v73,62,183,83,332,63r92,-270r371,-46r72,268v146,28,265,12,356,-48r-400,-1440v-94,-58,-194,-54,-299,12xm794,-533r-244,29r157,-492xm514,-1851r373,138v14,69,-3,124,-52,163r-366,-136v-1,-57,14,-112,45,-165","w":1338},"\u00e2":{"d":"579,-1461r-524,1461v73,62,183,83,332,63r92,-270r371,-46r72,268v146,28,265,12,356,-48r-400,-1440v-94,-58,-194,-54,-299,12xm794,-533r-244,29r157,-492xm657,-1759v21,-31,49,-57,85,-80r61,58r157,147v-15,59,-51,96,-108,109r-110,-105r-114,108v-56,-13,-92,-49,-107,-108","w":1338},"\u00e4":{"d":"587,-1461r-524,1461v73,62,183,83,332,63r92,-270r371,-46r72,268v146,28,265,12,356,-48r-400,-1440v-94,-58,-194,-54,-299,12xm802,-533r-244,29r157,-492xm471,-1699v0,-72,49,-129,120,-129v71,0,120,57,120,129v0,71,-49,128,-120,128v-72,0,-120,-57,-120,-128xm794,-1695v0,-72,49,-129,120,-129v71,0,120,57,120,129v0,72,-49,128,-120,128v-71,0,-120,-57,-120,-128","w":1338},"\u00e3":{"d":"579,-1461r-524,1461v73,62,183,83,332,63r92,-270r371,-46r72,268v146,28,265,12,356,-48r-400,-1440v-94,-58,-194,-54,-299,12xm794,-533r-244,29r157,-492xm935,-1607v-67,46,-127,51,-178,19v-37,-13,-93,-58,-136,-22v-21,17,-38,33,-53,44r-126,-35v26,-58,67,-109,123,-152v94,-70,170,-67,253,6v26,22,49,25,68,10v30,-7,53,-21,70,-43r76,80v-23,31,-54,63,-97,93","w":1338},"\u00e5":{"d":"579,-1461r-524,1461v73,62,183,83,332,63r92,-270r371,-46r72,268v146,28,265,12,356,-48r-400,-1440v-94,-58,-194,-54,-299,12xm794,-533r-244,29r157,-492xm579,-1688v0,-93,70,-160,164,-160v92,0,163,67,163,160v0,93,-69,160,-163,160v-95,0,-164,-66,-164,-160xm742,-1790v-57,0,-96,45,-96,102v0,56,39,101,96,101v57,0,96,-44,96,-101v0,-57,-40,-102,-96,-102","w":1338},"\u00e7":{"d":"562,47v-145,-34,-254,-99,-327,-195v-120,-158,-161,-381,-122,-669v31,-228,96,-408,217,-517v142,-128,329,-167,541,-148v147,13,250,64,309,163v23,120,-8,216,-94,288v-58,-37,-148,-72,-273,-89v-108,-15,-197,20,-266,94v-69,74,-103,171,-126,287v-15,76,-11,170,42,285v49,106,127,161,231,167v104,6,228,-14,373,-61v52,103,57,203,15,302v-158,72,-288,109,-391,112v1,1,2,3,3,4v19,13,46,30,82,50v49,27,74,78,76,154v2,76,-56,123,-174,142v-107,-5,-179,-53,-218,-142v8,-49,42,-69,102,-59v19,59,52,91,100,88v35,-3,53,-22,54,-49v1,-27,-15,-52,-53,-66v-70,-26,-100,-56,-101,-141","w":1275},"\u00e9":{"d":"207,-1437v-24,11,-40,30,-47,56r-90,1371v7,37,24,58,53,63r935,-37v71,-103,78,-214,23,-332r-671,20r27,-310r547,-23v58,-87,62,-179,12,-276r-537,11r18,-256r654,-21v44,-91,50,-189,17,-294xm917,-1693r-329,211v-55,-28,-84,-78,-85,-149r335,-214v41,45,68,95,79,152","w":1242},"\u00e8":{"d":"207,-1437v-24,11,-40,30,-47,56r-90,1371v7,37,24,58,53,63r935,-37v71,-103,78,-214,23,-332r-671,20r27,-310r547,-23v58,-87,62,-179,12,-276r-537,11r18,-256r654,-21v44,-91,50,-189,17,-294xm495,-1849r335,214v-1,71,-30,121,-85,149r-329,-211v11,-57,38,-107,79,-152","w":1242},"\u00ea":{"d":"192,-1437v-24,11,-40,30,-47,56r-90,1371v7,37,24,58,53,63r935,-37v71,-103,78,-214,23,-332r-671,20r27,-310r547,-23v58,-87,62,-179,12,-276r-537,11r18,-256r654,-21v44,-91,50,-189,17,-294xm589,-1742v21,-31,49,-57,85,-80r61,58r157,147v-15,59,-51,96,-108,109r-110,-105r-114,108v-56,-13,-92,-49,-107,-108","w":1242},"\u00eb":{"d":"192,-1437v-24,11,-40,30,-47,56r-90,1371v7,37,24,58,53,63r935,-37v71,-103,78,-214,23,-332r-671,20r27,-310r547,-23v58,-87,62,-179,12,-276r-537,11r18,-256r654,-21v44,-91,50,-189,17,-294xm382,-1695v0,-72,49,-129,120,-129v71,0,120,57,120,129v0,71,-49,128,-120,128v-72,0,-120,-57,-120,-128xm705,-1691v0,-72,49,-129,120,-129v71,0,120,57,120,129v0,72,-49,128,-120,128v-71,0,-120,-57,-120,-128","w":1242},"\u00ed":{"d":"55,18v94,49,209,54,345,15r118,-1471v-117,-34,-227,-39,-328,-15xm654,-1697r-329,211v-55,-28,-84,-78,-85,-149r335,-214v41,45,68,95,79,152","w":578},"\u00ec":{"d":"55,18v94,49,209,54,345,15r118,-1471v-117,-34,-227,-39,-328,-15xm152,-1849r335,214v-1,71,-30,121,-85,149r-329,-211v11,-57,38,-107,79,-152","w":578},"\u00ee":{"d":"55,18v94,49,209,54,345,15r118,-1471v-117,-34,-227,-39,-328,-15xm287,-1759v21,-31,49,-57,85,-80r61,58r157,147v-15,59,-51,96,-108,109r-110,-105r-114,108v-56,-13,-92,-49,-107,-108","w":578},"\u00ef":{"d":"55,18v94,49,209,54,345,15r118,-1471v-117,-34,-227,-39,-328,-15xm89,-1703v0,-72,49,-129,120,-129v71,0,120,57,120,129v0,71,-49,128,-120,128v-72,0,-120,-57,-120,-128xm412,-1699v0,-72,49,-129,120,-129v71,0,120,57,120,129v0,72,-49,128,-120,128v-71,0,-120,-57,-120,-128","w":578},"\u00f1":{"d":"141,-1398r-86,1405v73,53,182,61,325,24r56,-818r447,816v117,47,210,39,278,-22r86,-1426v-95,-51,-193,-52,-296,-2r-48,788r-476,-807v-143,-37,-239,-23,-286,42xm914,-1582v-67,46,-127,51,-178,19v-37,-13,-93,-58,-136,-22v-21,17,-38,33,-53,44r-126,-35v26,-58,67,-109,123,-152v94,-70,170,-67,253,6v26,22,49,25,68,10v30,-7,53,-21,70,-43r76,80v-23,31,-54,63,-97,93","w":1307},"\u00f3":{"d":"1241,-1251v108,143,152,325,132,545v-20,220,-93,400,-220,543v-127,143,-282,214,-467,214v-185,0,-336,-70,-454,-209v-118,-139,-167,-317,-148,-535v19,-218,98,-401,237,-550v139,-149,300,-223,483,-223v183,0,329,72,437,215xm538,-984v-69,73,-112,167,-127,286v-15,119,10,218,74,296v64,78,141,114,232,110v91,-4,165,-45,228,-118v113,-130,153,-402,43,-562v-108,-157,-321,-149,-450,-12xm1173,-1702r-329,211v-55,-28,-84,-78,-85,-149r335,-214v41,45,68,95,79,152"},"\u00f2":{"d":"1241,-1251v108,143,152,325,132,545v-20,220,-93,400,-220,543v-127,143,-282,214,-467,214v-185,0,-336,-70,-454,-209v-118,-139,-167,-317,-148,-535v19,-218,98,-401,237,-550v139,-149,300,-223,483,-223v183,0,329,72,437,215xm538,-984v-69,73,-112,167,-127,286v-15,119,10,218,74,296v64,78,141,114,232,110v91,-4,165,-45,228,-118v113,-130,153,-402,43,-562v-108,-157,-321,-149,-450,-12xm596,-1854r335,214v-1,71,-30,121,-85,149r-329,-211v11,-57,38,-107,79,-152"},"\u00f4":{"d":"1241,-1251v108,143,152,325,132,545v-20,220,-93,400,-220,543v-127,143,-282,214,-467,214v-185,0,-336,-70,-454,-209v-118,-139,-167,-317,-148,-535v19,-218,98,-401,237,-550v139,-149,300,-223,483,-223v183,0,329,72,437,215xm538,-984v-69,73,-112,167,-127,286v-15,119,10,218,74,296v64,78,141,114,232,110v91,-4,165,-45,228,-118v113,-130,153,-402,43,-562v-108,-157,-321,-149,-450,-12xm772,-1755v21,-31,49,-57,85,-80r61,58r157,147v-15,59,-51,96,-108,109r-110,-105r-114,108v-56,-13,-92,-49,-107,-108"},"\u00f6":{"d":"1241,-1251v108,143,152,325,132,545v-20,220,-93,400,-220,543v-127,143,-282,214,-467,214v-185,0,-336,-70,-454,-209v-118,-139,-167,-317,-148,-535v19,-218,98,-401,237,-550v139,-149,300,-223,483,-223v183,0,329,72,437,215xm538,-984v-69,73,-112,167,-127,286v-15,119,10,218,74,296v64,78,141,114,232,110v91,-4,165,-45,228,-118v113,-130,153,-402,43,-562v-108,-157,-321,-149,-450,-12xm540,-1711v0,-72,49,-129,120,-129v71,0,120,57,120,129v0,71,-49,128,-120,128v-72,0,-120,-57,-120,-128xm863,-1707v0,-72,49,-129,120,-129v71,0,120,57,120,129v0,72,-49,128,-120,128v-71,0,-120,-57,-120,-128"},"\u00f5":{"d":"1241,-1251v108,143,152,325,132,545v-20,220,-93,400,-220,543v-127,143,-282,214,-467,214v-185,0,-336,-70,-454,-209v-118,-139,-167,-317,-148,-535v19,-218,98,-401,237,-550v139,-149,300,-223,483,-223v183,0,329,72,437,215xm538,-984v-69,73,-112,167,-127,286v-15,119,10,218,74,296v64,78,141,114,232,110v91,-4,165,-45,228,-118v113,-130,153,-402,43,-562v-108,-157,-321,-149,-450,-12xm1024,-1602v-67,46,-127,51,-178,19v-37,-13,-93,-58,-136,-22v-21,17,-38,33,-53,44r-126,-35v26,-58,67,-109,123,-152v94,-70,170,-67,253,6v26,22,49,25,68,10v30,-7,53,-21,70,-43r76,80v-23,31,-54,63,-97,93"},"\u00fa":{"d":"135,-1439v120,-23,234,-22,343,5v-41,529,-60,836,-56,922v7,164,53,264,220,264v79,0,134,-24,164,-73v30,-49,48,-112,56,-191v8,-79,22,-388,41,-925v97,-25,208,-25,332,-2v-32,713,-67,1113,-107,1201v-80,176,-237,296,-497,296v-131,0,-245,-32,-343,-98v-98,-66,-162,-161,-190,-286v-28,-125,-16,-496,37,-1113xm967,-1693r-329,211v-55,-28,-84,-78,-85,-149r335,-214v41,45,68,95,79,152","w":1295},"\u00f9":{"d":"135,-1439v120,-23,234,-22,343,5v-41,529,-60,836,-56,922v7,164,53,264,220,264v79,0,134,-24,164,-73v30,-49,48,-112,56,-191v8,-79,22,-388,41,-925v97,-25,208,-25,332,-2v-32,713,-67,1113,-107,1201v-80,176,-237,296,-497,296v-131,0,-245,-32,-343,-98v-98,-66,-162,-161,-190,-286v-28,-125,-16,-496,37,-1113xm545,-1849r335,214v-1,71,-30,121,-85,149r-329,-211v11,-57,38,-107,79,-152","w":1295},"\u00fb":{"d":"135,-1439v120,-23,234,-22,343,5v-41,529,-60,836,-56,922v7,164,53,264,220,264v79,0,134,-24,164,-73v30,-49,48,-112,56,-191v8,-79,22,-388,41,-925v97,-25,208,-25,332,-2v-32,713,-67,1113,-107,1201v-80,176,-237,296,-497,296v-131,0,-245,-32,-343,-98v-98,-66,-162,-161,-190,-286v-28,-125,-16,-496,37,-1113xm633,-1759v21,-31,49,-57,85,-80r61,58r157,147v-15,59,-51,96,-108,109r-110,-105r-114,108v-56,-13,-92,-49,-107,-108","w":1295},"\u00fc":{"d":"135,-1439v120,-23,234,-22,343,5v-41,529,-60,836,-56,922v7,164,53,264,220,264v79,0,134,-24,164,-73v30,-49,48,-112,56,-191v8,-79,22,-388,41,-925v97,-25,208,-25,332,-2v-32,713,-67,1113,-107,1201v-80,176,-237,296,-497,296v-131,0,-245,-32,-343,-98v-98,-66,-162,-161,-190,-286v-28,-125,-16,-496,37,-1113xm427,-1687v0,-72,49,-129,120,-129v71,0,120,57,120,129v0,71,-49,128,-120,128v-72,0,-120,-57,-120,-128xm750,-1683v0,-72,49,-129,120,-129v71,0,120,57,120,129v0,72,-49,128,-120,128v-71,0,-120,-57,-120,-128","w":1295},"\u00b0":{"w":819},"\u00a2":{"w":1139},"\u00a3":{"d":"1027,-965v72,-47,99,-143,82,-287v-71,-169,-199,-234,-386,-210v-135,18,-248,78,-336,194v-62,81,-111,264,-147,548r-163,11v-35,106,-31,196,14,269r121,-10v-4,47,-9,97,-11,149r-2,60r-137,11v-39,136,-34,251,15,344r1099,-106v24,-101,19,-210,-15,-327r-659,53v1,-75,4,-145,8,-210r308,-27v22,-79,17,-165,-14,-256r-265,18v69,-411,232,-485,488,-224","w":1222},"\u00a7":{"w":1139},"\u00b6":{"w":1100},"\u00df":{"d":"727,-1156v72,106,31,178,-120,211v-61,107,-54,203,21,288v171,25,247,83,230,171v-30,159,-107,204,-279,189v-25,-3,-51,26,-77,87v-56,133,-26,223,99,260v233,-23,383,-83,451,-180v68,-97,107,-202,116,-316v9,-114,-5,-213,-43,-300v-38,-87,-108,-138,-209,-154v171,-93,208,-232,112,-416v-96,-184,-363,-238,-800,-148v-44,9,-52,63,-58,147r-92,1326v71,55,175,63,311,24r97,-1247v129,-6,210,12,241,58","w":1247},"\u00ae":{"w":1509},"\u00a9":{"w":1509},"\u00b4":{"w":682},"\u00a8":{"w":682},"\u00c6":{"d":"751,-48v7,35,24,56,53,61r753,-35v71,-103,78,-214,23,-332r-489,20r27,-310r365,-23v58,-87,62,-179,12,-276r-355,11r18,-256r472,-21v44,-91,50,-189,17,-294r-761,29v-77,-27,-157,-14,-242,39r-667,1435v73,62,195,80,366,54r92,-270r329,-36xm785,-564r-203,27r233,-523","w":1667},"\u00d8":{"d":"870,-1071v-128,-46,-240,-5,-332,87v-70,72,-112,167,-127,286v-13,101,3,187,47,258xm595,-314v38,17,79,24,122,22v91,-5,165,-45,228,-118v106,-122,153,-373,59,-536xm1219,-1278v120,140,176,339,154,572v-21,220,-93,400,-220,543v-127,143,-282,214,-467,214v-105,0,-200,-22,-283,-67r-170,262v-92,10,-141,-29,-148,-116r170,-261v-128,-137,-193,-330,-171,-562v21,-218,98,-401,237,-550v139,-149,300,-223,483,-223v105,0,197,23,278,70r175,-268v65,-2,112,35,141,110"},"\u00b1":{"w":1124},"\u00a5":{"d":"257,-598v-39,46,-50,91,-35,136r192,0r-3,65r-154,0v-39,46,-50,91,-35,136r184,0r-11,298v93,42,200,43,321,2r12,-300r179,0v32,-45,44,-90,35,-136r-208,0r3,-65r170,0v32,-45,44,-90,35,-136r-200,0r3,-68r473,-700v-54,-71,-152,-103,-293,-96r-315,510r-239,-516v-143,-9,-249,27,-316,109r367,685r-3,76r-162,0","w":1278},"\u00b5":{"w":1180},"\u00aa":{"w":758},"\u00ba":{"w":748},"\u00e6":{"d":"751,-48v7,35,24,56,53,61r753,-35v71,-103,78,-214,23,-332r-489,20r27,-310r365,-23v58,-87,62,-179,12,-276r-355,11r18,-256r472,-21v44,-91,50,-189,17,-294r-761,29v-77,-27,-157,-14,-242,39r-667,1435v73,62,195,80,366,54r92,-270r329,-36xm785,-564r-203,27r233,-523","w":1667},"\u00f8":{"d":"870,-1071v-128,-46,-240,-5,-332,87v-70,72,-112,167,-127,286v-13,101,3,187,47,258xm595,-314v38,17,79,24,122,22v91,-5,165,-45,228,-118v106,-122,153,-373,59,-536xm1219,-1278v120,140,176,339,154,572v-21,220,-93,400,-220,543v-127,143,-282,214,-467,214v-105,0,-200,-22,-283,-67r-170,262v-92,10,-141,-29,-148,-116r170,-261v-128,-137,-193,-330,-171,-562v21,-218,98,-401,237,-550v139,-149,300,-223,483,-223v105,0,197,23,278,70r175,-268v65,-2,112,35,141,110"},"\u00bf":{"d":"969,-369v-19,-126,-97,-176,-236,-150v-43,151,-121,233,-231,224v-82,-7,-123,-55,-126,-125v-3,-70,35,-135,122,-170v211,-84,256,-212,228,-510v-73,-39,-155,-42,-246,-11v-5,106,-23,179,-54,220v-43,34,-106,77,-189,128v-113,69,-172,201,-176,395v-4,194,130,316,402,363v247,-13,416,-135,506,-364xm781,-1379v0,94,-69,163,-163,163v-93,0,-163,-69,-163,-163v0,-93,69,-162,163,-162v94,0,163,69,163,162","w":1029},"\u00a1":{"d":"415,-22r52,-1047v-57,-37,-128,-42,-214,-13r-198,1012v102,71,222,87,360,48xm566,-1333v0,94,-69,163,-163,163v-93,0,-163,-69,-163,-163v0,-93,69,-162,163,-162v94,0,163,69,163,162","w":626},"\u00ac":{"w":1196},"\u00ab":{"d":"224,60v82,26,142,16,180,-31r-202,-594r211,-633v-55,-35,-112,-45,-172,-30r-225,663xm488,59v82,26,142,16,180,-31r-202,-593r211,-633v-55,-35,-112,-45,-172,-30r-225,663","w":735},"\u00bb":{"d":"469,-1221v-82,-26,-142,-16,-180,31r202,594r-211,632v55,35,112,45,172,30r225,-662xm205,-1221v-82,-26,-142,-16,-180,31r202,594r-211,632v55,35,112,45,172,30r225,-662","w":735},"\u00c0":{"d":"579,-1461r-524,1461v73,62,183,83,332,63r92,-270r371,-46r72,268v146,28,265,12,356,-48r-400,-1440v-94,-58,-194,-54,-299,12xm794,-533r-244,29r157,-492xm514,-1851r373,138v14,69,-3,124,-52,163r-366,-136v-1,-57,14,-112,45,-165","w":1338},"\u00c3":{"d":"579,-1461r-524,1461v73,62,183,83,332,63r92,-270r371,-46r72,268v146,28,265,12,356,-48r-400,-1440v-94,-58,-194,-54,-299,12xm794,-533r-244,29r157,-492xm935,-1607v-67,46,-127,51,-178,19v-37,-13,-93,-58,-136,-22v-21,17,-38,33,-53,44r-126,-35v26,-58,67,-109,123,-152v94,-70,170,-67,253,6v26,22,49,25,68,10v30,-7,53,-21,70,-43r76,80v-23,31,-54,63,-97,93","w":1338},"\u00d5":{"d":"1241,-1251v108,143,152,325,132,545v-20,220,-93,400,-220,543v-127,143,-282,214,-467,214v-185,0,-336,-70,-454,-209v-118,-139,-167,-317,-148,-535v19,-218,98,-401,237,-550v139,-149,300,-223,483,-223v183,0,329,72,437,215xm538,-984v-69,73,-112,167,-127,286v-15,119,10,218,74,296v64,78,141,114,232,110v91,-4,165,-45,228,-118v113,-130,153,-402,43,-562v-108,-157,-321,-149,-450,-12xm1024,-1602v-67,46,-127,51,-178,19v-37,-13,-93,-58,-136,-22v-21,17,-38,33,-53,44r-126,-35v26,-58,67,-109,123,-152v94,-70,170,-67,253,6v26,22,49,25,68,10v30,-7,53,-21,70,-43r76,80v-23,31,-54,63,-97,93"},"\u00f7":{"w":1124},"\u00ff":{"d":"55,-1359r367,685r-27,711v93,42,200,43,321,2r29,-705r473,-700v-54,-71,-152,-103,-293,-96r-315,510r-239,-516v-143,-9,-249,27,-316,109xm359,-1687v0,-72,49,-129,120,-129v71,0,120,57,120,129v0,71,-49,128,-120,128v-72,0,-120,-57,-120,-128xm682,-1683v0,-72,49,-129,120,-129v71,0,120,57,120,129v0,72,-49,128,-120,128v-71,0,-120,-57,-120,-128","w":1278},"\u00b7":{"w":569},"\u2219":{"w":569},"\u00c2":{"d":"579,-1461r-524,1461v73,62,183,83,332,63r92,-270r371,-46r72,268v146,28,265,12,356,-48r-400,-1440v-94,-58,-194,-54,-299,12xm794,-533r-244,29r157,-492xm657,-1759v21,-31,49,-57,85,-80r61,58r157,147v-15,59,-51,96,-108,109r-110,-105r-114,108v-56,-13,-92,-49,-107,-108","w":1338},"\u00ca":{"d":"192,-1437v-24,11,-40,30,-47,56r-90,1371v7,37,24,58,53,63r935,-37v71,-103,78,-214,23,-332r-671,20r27,-310r547,-23v58,-87,62,-179,12,-276r-537,11r18,-256r654,-21v44,-91,50,-189,17,-294xm589,-1742v21,-31,49,-57,85,-80r61,58r157,147v-15,59,-51,96,-108,109r-110,-105r-114,108v-56,-13,-92,-49,-107,-108","w":1242},"\u00c1":{"d":"579,-1461r-524,1461v73,62,183,83,332,63r92,-270r371,-46r72,268v146,28,265,12,356,-48r-400,-1440v-94,-58,-194,-54,-299,12xm794,-533r-244,29r157,-492xm1079,-1685r-366,136v-48,-39,-65,-94,-51,-164r373,-138v31,53,46,108,44,166","w":1338},"\u00cb":{"d":"192,-1437v-24,11,-40,30,-47,56r-90,1371v7,37,24,58,53,63r935,-37v71,-103,78,-214,23,-332r-671,20r27,-310r547,-23v58,-87,62,-179,12,-276r-537,11r18,-256r654,-21v44,-91,50,-189,17,-294xm382,-1695v0,-72,49,-129,120,-129v71,0,120,57,120,129v0,71,-49,128,-120,128v-72,0,-120,-57,-120,-128xm705,-1691v0,-72,49,-129,120,-129v71,0,120,57,120,129v0,72,-49,128,-120,128v-71,0,-120,-57,-120,-128","w":1242},"\u00c8":{"d":"207,-1437v-24,11,-40,30,-47,56r-90,1371v7,37,24,58,53,63r935,-37v71,-103,78,-214,23,-332r-671,20r27,-310r547,-23v58,-87,62,-179,12,-276r-537,11r18,-256r654,-21v44,-91,50,-189,17,-294xm495,-1849r335,214v-1,71,-30,121,-85,149r-329,-211v11,-57,38,-107,79,-152","w":1242},"\u00cd":{"d":"55,18v94,49,209,54,345,15r118,-1471v-117,-34,-227,-39,-328,-15xm654,-1697r-329,211v-55,-28,-84,-78,-85,-149r335,-214v41,45,68,95,79,152","w":578},"\u00ce":{"d":"55,18v94,49,209,54,345,15r118,-1471v-117,-34,-227,-39,-328,-15xm287,-1759v21,-31,49,-57,85,-80r61,58r157,147v-15,59,-51,96,-108,109r-110,-105r-114,108v-56,-13,-92,-49,-107,-108","w":578},"\u00cf":{"d":"55,18v94,49,209,54,345,15r118,-1471v-117,-34,-227,-39,-328,-15xm89,-1703v0,-72,49,-129,120,-129v71,0,120,57,120,129v0,71,-49,128,-120,128v-72,0,-120,-57,-120,-128xm412,-1699v0,-72,49,-129,120,-129v71,0,120,57,120,129v0,72,-49,128,-120,128v-71,0,-120,-57,-120,-128","w":578},"\u00cc":{"d":"55,18v94,49,209,54,345,15r118,-1471v-117,-34,-227,-39,-328,-15xm152,-1849r335,214v-1,71,-30,121,-85,149r-329,-211v11,-57,38,-107,79,-152","w":578},"\u00d3":{"d":"1241,-1251v108,143,152,325,132,545v-20,220,-93,400,-220,543v-127,143,-282,214,-467,214v-185,0,-336,-70,-454,-209v-118,-139,-167,-317,-148,-535v19,-218,98,-401,237,-550v139,-149,300,-223,483,-223v183,0,329,72,437,215xm538,-984v-69,73,-112,167,-127,286v-15,119,10,218,74,296v64,78,141,114,232,110v91,-4,165,-45,228,-118v113,-130,153,-402,43,-562v-108,-157,-321,-149,-450,-12xm1173,-1702r-329,211v-55,-28,-84,-78,-85,-149r335,-214v41,45,68,95,79,152"},"\u00d4":{"d":"1241,-1251v108,143,152,325,132,545v-20,220,-93,400,-220,543v-127,143,-282,214,-467,214v-185,0,-336,-70,-454,-209v-118,-139,-167,-317,-148,-535v19,-218,98,-401,237,-550v139,-149,300,-223,483,-223v183,0,329,72,437,215xm538,-984v-69,73,-112,167,-127,286v-15,119,10,218,74,296v64,78,141,114,232,110v91,-4,165,-45,228,-118v113,-130,153,-402,43,-562v-108,-157,-321,-149,-450,-12xm772,-1755v21,-31,49,-57,85,-80r61,58r157,147v-15,59,-51,96,-108,109r-110,-105r-114,108v-56,-13,-92,-49,-107,-108"},"\u00d2":{"d":"1241,-1251v108,143,152,325,132,545v-20,220,-93,400,-220,543v-127,143,-282,214,-467,214v-185,0,-336,-70,-454,-209v-118,-139,-167,-317,-148,-535v19,-218,98,-401,237,-550v139,-149,300,-223,483,-223v183,0,329,72,437,215xm538,-984v-69,73,-112,167,-127,286v-15,119,10,218,74,296v64,78,141,114,232,110v91,-4,165,-45,228,-118v113,-130,153,-402,43,-562v-108,-157,-321,-149,-450,-12xm596,-1854r335,214v-1,71,-30,121,-85,149r-329,-211v11,-57,38,-107,79,-152"},"\u00da":{"d":"135,-1439v120,-23,234,-22,343,5v-41,529,-60,836,-56,922v7,164,53,264,220,264v79,0,134,-24,164,-73v30,-49,48,-112,56,-191v8,-79,22,-388,41,-925v97,-25,208,-25,332,-2v-32,713,-67,1113,-107,1201v-80,176,-237,296,-497,296v-131,0,-245,-32,-343,-98v-98,-66,-162,-161,-190,-286v-28,-125,-16,-496,37,-1113xm967,-1693r-329,211v-55,-28,-84,-78,-85,-149r335,-214v41,45,68,95,79,152","w":1295},"\u00db":{"d":"135,-1439v120,-23,234,-22,343,5v-41,529,-60,836,-56,922v7,164,53,264,220,264v79,0,134,-24,164,-73v30,-49,48,-112,56,-191v8,-79,22,-388,41,-925v97,-25,208,-25,332,-2v-32,713,-67,1113,-107,1201v-80,176,-237,296,-497,296v-131,0,-245,-32,-343,-98v-98,-66,-162,-161,-190,-286v-28,-125,-16,-496,37,-1113xm633,-1759v21,-31,49,-57,85,-80r61,58r157,147v-15,59,-51,96,-108,109r-110,-105r-114,108v-56,-13,-92,-49,-107,-108","w":1295},"\u00d9":{"d":"135,-1439v120,-23,234,-22,343,5v-41,529,-60,836,-56,922v7,164,53,264,220,264v79,0,134,-24,164,-73v30,-49,48,-112,56,-191v8,-79,22,-388,41,-925v97,-25,208,-25,332,-2v-32,713,-67,1113,-107,1201v-80,176,-237,296,-497,296v-131,0,-245,-32,-343,-98v-98,-66,-162,-161,-190,-286v-28,-125,-16,-496,37,-1113xm545,-1849r335,214v-1,71,-30,121,-85,149r-329,-211v11,-57,38,-107,79,-152","w":1295},"\u00b8":{"w":682},"\u00a6":{"w":532},"\u00d0":{"w":1479},"\u00f0":{"w":1139},"\u00dd":{"w":1366},"\u00fd":{"w":1024},"\u00de":{"w":1366},"\u00fe":{"w":1139},"\u00d7":{"w":1196},"\u00b9":{"w":682},"\u00b2":{"w":682},"\u00b3":{"w":682},"\u00bd":{"w":1708},"\u00bc":{"w":1708},"\u00be":{"w":1708},"\u00a4":{"w":1139},"\u00af":{"w":1131}}});
